<?xml version="1.0"?>
<opencv_storage>
<cascade>
  <stageType>BOOST</stageType>
  <featureType>HAAR</featureType>
  <height>48</height>
  <width>48</width>
  <stageParams>
    <boostType>GAB</boostType>
    <minHitRate>9.9500000476837158e-01</minHitRate>
    <maxFalseAlarm>6.0000002384185791e-01</maxFalseAlarm>
    <weightTrimRate>9.4999999999999996e-01</weightTrimRate>
    <maxDepth>1</maxDepth>
    <maxWeakCount>100</maxWeakCount></stageParams>
  <featureParams>
    <maxCatCount>0</maxCatCount>
    <featSize>1</featSize>
    <mode>BASIC</mode></featureParams>
  <stageNum>11</stageNum>
  <stages>
    <!-- stage 0 -->
    <_>
      <maxWeakCount>2</maxWeakCount>
      <stageThreshold>-4.5565035194158554e-02</stageThreshold>
      <weakClassifiers>
        <_>
          <internalNodes>
            0 -1 8 -6.5419919788837433e-02</internalNodes>
          <leafValues>
            9.3051034212112427e-01 -9.5407098531723022e-01</leafValues></_>
        <_>
          <internalNodes>
            0 -1 2 3.4363009035587311e-02</internalNodes>
          <leafValues>
            -8.2834881544113159e-01 9.0850597620010376e-01</leafValues></_></weakClassifiers></_>
    <!-- stage 1 -->
    <_>
      <maxWeakCount>2</maxWeakCount>
      <stageThreshold>-2.0939762890338898e-01</stageThreshold>
      <weakClassifiers>
        <_>
          <internalNodes>
            0 -1 5 6.5004259347915649e-02</internalNodes>
          <leafValues>
            -9.4736844301223755e-01 8.1059062480926514e-01</leafValues></_>
        <_>
          <internalNodes>
            0 -1 14 -9.5286443829536438e-03</internalNodes>
          <leafValues>
            7.3797076940536499e-01 -8.1636101007461548e-01</leafValues></_></weakClassifiers></_>
    <!-- stage 2 -->
    <_>
      <maxWeakCount>2</maxWeakCount>
      <stageThreshold>-2.4901480972766876e-01</stageThreshold>
      <weakClassifiers>
        <_>
          <internalNodes>
            0 -1 6 1.1098548024892807e-01</internalNodes>
          <leafValues>
            -8.4878051280975342e-01 7.5555557012557983e-01</leafValues></_>
        <_>
          <internalNodes>
            0 -1 9 3.7906351499259472e-03</internalNodes>
          <leafValues>
            -9.1674387454986572e-01 5.9976565837860107e-01</leafValues></_></weakClassifiers></_>
    <!-- stage 3 -->
    <_>
      <maxWeakCount>2</maxWeakCount>
      <stageThreshold>-5.7013072073459625e-02</stageThreshold>
      <weakClassifiers>
        <_>
          <internalNodes>
            0 -1 19 -1.2193918228149414e-03</internalNodes>
          <leafValues>
            7.6302349567413330e-01 -8.2422804832458496e-01</leafValues></_>
        <_>
          <internalNodes>
            0 -1 3 4.0637016296386719e-02</internalNodes>
          <leafValues>
            -8.2003659009933472e-01 8.1930094957351685e-01</leafValues></_></weakClassifiers></_>
    <!-- stage 4 -->
    <_>
      <maxWeakCount>2</maxWeakCount>
      <stageThreshold>-7.5139351189136505e-02</stageThreshold>
      <weakClassifiers>
        <_>
          <internalNodes>
            0 -1 12 -1.6678285319358110e-03</internalNodes>
          <leafValues>
            7.9938584566116333e-01 -9.0070921182632446e-01</leafValues></_>
        <_>
          <internalNodes>
            0 -1 1 1.5172578394412994e-01</internalNodes>
          <leafValues>
            -7.5431567430496216e-01 8.2556986808776855e-01</leafValues></_></weakClassifiers></_>
    <!-- stage 5 -->
    <_>
      <maxWeakCount>2</maxWeakCount>
      <stageThreshold>-5.0011560320854187e-02</stageThreshold>
      <weakClassifiers>
        <_>
          <internalNodes>
            0 -1 15 -4.9751199549064040e-04</internalNodes>
          <leafValues>
            9.5505619049072266e-01 -8.8235294818878174e-01</leafValues></_>
        <_>
          <internalNodes>
            0 -1 10 1.1156247928738594e-02</internalNodes>
          <leafValues>
            -9.1077703237533569e-01 8.3234137296676636e-01</leafValues></_></weakClassifiers></_>
    <!-- stage 6 -->
    <_>
      <maxWeakCount>2</maxWeakCount>
      <stageThreshold>3.7882626056671143e-02</stageThreshold>
      <weakClassifiers>
        <_>
          <internalNodes>
            0 -1 7 -1.1446574330329895e-01</internalNodes>
          <leafValues>
            8.0147832632064819e-01 -7.9249447584152222e-01</leafValues></_>
        <_>
          <internalNodes>
            0 -1 20 2.8291549533605576e-03</internalNodes>
          <leafValues>
            -7.3953777551651001e-01 8.3037710189819336e-01</leafValues></_></weakClassifiers></_>
    <!-- stage 7 -->
    <_>
      <maxWeakCount>2</maxWeakCount>
      <stageThreshold>6.0003787279129028e-02</stageThreshold>
      <weakClassifiers>
        <_>
          <internalNodes>
            0 -1 0 -2.1602924913167953e-02</internalNodes>
          <leafValues>
            7.9513186216354370e-01 -9.2753624916076660e-01</leafValues></_>
        <_>
          <internalNodes>
            0 -1 4 1.7548443749547005e-02</internalNodes>
          <leafValues>
            -7.3079812526702881e-01 9.8754000663757324e-01</leafValues></_></weakClassifiers></_>
    <!-- stage 8 -->
    <_>
      <maxWeakCount>2</maxWeakCount>
      <stageThreshold>8.1652775406837463e-03</stageThreshold>
      <weakClassifiers>
        <_>
          <internalNodes>
            0 -1 13 -3.4581043291836977e-04</internalNodes>
          <leafValues>
            -9.0707069635391235e-01 9.3812155723571777e-01</leafValues></_>
        <_>
          <internalNodes>
            0 -1 17 -1.3145610690116882e-02</internalNodes>
          <leafValues>
            9.1523599624633789e-01 -8.6968153715133667e-01</leafValues></_></weakClassifiers></_>
    <!-- stage 9 -->
    <_>
      <maxWeakCount>2</maxWeakCount>
      <stageThreshold>1.5914998948574066e-02</stageThreshold>
      <weakClassifiers>
        <_>
          <internalNodes>
            0 -1 16 -3.7168429116718471e-05</internalNodes>
          <leafValues>
            9.6162527799606323e-01 -8.7937742471694946e-01</leafValues></_>
        <_>
          <internalNodes>
            0 -1 18 -1.2341234833002090e-03</internalNodes>
          <leafValues>
            9.1658836603164673e-01 -9.4571030139923096e-01</leafValues></_></weakClassifiers></_>
    <!-- stage 10 -->
    <_>
      <maxWeakCount>1</maxWeakCount>
      <stageThreshold>1.</stageThreshold>
      <weakClassifiers>
        <_>
          <internalNodes>
            0 -1 11 2.9154908843338490e-03</internalNodes>
          <leafValues>
            1. -9.9203187227249146e-01</leafValues></_></weakClassifiers></_></stages>
  <features>
    <_>
      <rects>
        <_>
          3 5 42 38 -1.</_>
        <_>
          3 5 21 19 2.</_>
        <_>
          24 24 21 19 2.</_></rects>
      <tilted>0</tilted></_>
    <_>
      <rects>
        <_>
          3 6 39 40 -1.</_>
        <_>
          16 6 13 40 3.</_></rects>
      <tilted>0</tilted></_>
    <_>
      <rects>
        <_>
          3 13 12 24 -1.</_>
        <_>
          9 13 6 24 2.</_></rects>
      <tilted>0</tilted></_>
    <_>
      <rects>
        <_>
          3 14 12 25 -1.</_>
        <_>
          9 14 6 25 2.</_></rects>
      <tilted>0</tilted></_>
    <_>
      <rects>
        <_>
          4 18 10 11 -1.</_>
        <_>
          9 18 5 11 2.</_></rects>
      <tilted>0</tilted></_>
    <_>
      <rects>
        <_>
          5 25 36 17 -1.</_>
        <_>
          17 25 12 17 3.</_></rects>
      <tilted>0</tilted></_>
    <_>
      <rects>
        <_>
          7 11 21 33 -1.</_>
        <_>
          7 22 21 11 3.</_></rects>
      <tilted>0</tilted></_>
    <_>
      <rects>
        <_>
          8 22 26 22 -1.</_>
        <_>
          8 33 26 11 2.</_></rects>
      <tilted>0</tilted></_>
    <_>
      <rects>
        <_>
          8 25 27 18 -1.</_>
        <_>
          8 34 27 9 2.</_></rects>
      <tilted>0</tilted></_>
    <_>
      <rects>
        <_>
          10 6 32 4 -1.</_>
        <_>
          26 6 16 4 2.</_></rects>
      <tilted>0</tilted></_>
    <_>
      <rects>
        <_>
          13 29 27 18 -1.</_>
        <_>
          22 29 9 18 3.</_></rects>
      <tilted>0</tilted></_>
    <_>
      <rects>
        <_>
          21 7 14 8 -1.</_>
        <_>
          21 7 7 4 2.</_>
        <_>
          28 11 7 4 2.</_></rects>
      <tilted>0</tilted></_>
    <_>
      <rects>
        <_>
          28 27 16 3 -1.</_>
        <_>
          36 27 8 3 2.</_></rects>
      <tilted>0</tilted></_>
    <_>
      <rects>
        <_>
          29 3 6 10 -1.</_>
        <_>
          32 3 3 10 2.</_></rects>
      <tilted>0</tilted></_>
    <_>
      <rects>
        <_>
          29 7 12 16 -1.</_>
        <_>
          29 7 6 8 2.</_>
        <_>
          35 15 6 8 2.</_></rects>
      <tilted>0</tilted></_>
    <_>
      <rects>
        <_>
          31 9 8 8 -1.</_>
        <_>
          31 9 4 4 2.</_>
        <_>
          35 13 4 4 2.</_></rects>
      <tilted>0</tilted></_>
    <_>
      <rects>
        <_>
          32 18 12 1 -1.</_>
        <_>
          36 18 4 1 3.</_></rects>
      <tilted>0</tilted></_>
    <_>
      <rects>
        <_>
          34 3 4 42 -1.</_>
        <_>
          34 24 4 21 2.</_></rects>
      <tilted>0</tilted></_>
    <_>
      <rects>
        <_>
          34 9 6 14 -1.</_>
        <_>
          34 9 3 7 2.</_>
        <_>
          37 16 3 7 2.</_></rects>
      <tilted>0</tilted></_>
    <_>
      <rects>
        <_>
          35 11 6 14 -1.</_>
        <_>
          35 11 3 7 2.</_>
        <_>
          38 18 3 7 2.</_></rects>
      <tilted>0</tilted></_>
    <_>
      <rects>
        <_>
          36 5 12 14 -1.</_>
        <_>
          36 5 6 7 2.</_>
        <_>
          42 12 6 7 2.</_></rects>
      <tilted>0</tilted></_></features></cascade>
</opencv_storage>
